digraph Tree {
node [shape=box, style="filled", color="black", fontname="helvetica"] ;
edge [fontname="helvetica"] ;
0 [label="petal length (cm) <= 2.559\nentropy = 1.585\nsamples = 150\nvalue = [50, 50, 50]\nclass = setosa", fillcolor="#ffffff"] ;
1 [label="entropy = 0.0\nsamples = 50\nvalue = [50, 0, 0]\nclass = setosa", fillcolor="#e58139"] ;
0 -> 1 [labeldistance=2.5, labelangle=45, headlabel="True"] ;
2 [label="petal length (cm) <= 5.122\nentropy = 1.0\nsamples = 100\nvalue = [0, 50, 50]\nclass = versicolor", fillcolor="#ffffff"] ;
0 -> 2 [labeldistance=2.5, labelangle=-45, headlabel="False"] ;
3 [label="entropy = 0.146\nsamples = 48\nvalue = [0, 47, 1]\nclass = versicolor", fillcolor="#3de684"] ;
2 -> 3 ;
4 [label="entropy = 0.318\nsamples = 52\nvalue = [0, 3, 49]\nclass = virginica", fillcolor="#8945e7"] ;
2 -> 4 ;
}